34 128
34 0.1307792 -0.044742007 0.15610045 -0.05162701 -0.003974297 -0.14352344 0.0047699558 0.09280471 -0.06026346 0.040977888 0.27241996 -0.061247427 -0.20408784 0.009659109 0.104545936 -0.039147455 0.08875509 -0.056768246 -0.11945615 0.04635792 0.175799 0.077578604 0.09915468 0.11656784 -0.11733154 0.11852226 -0.16917047 0.16866021 0.02226503 -0.119683065 -0.16757986 0.01566506 0.0801407 -0.06922847 -0.072091125 -0.103727594 0.24458878 -0.07720558 0.19196822 0.04893499 -0.07798885 0.07627822 -0.06924666 -0.15096152 -0.0076816413 -0.04337288 0.10974479 -0.009273937 -0.0013970319 0.11160395 0.029068675 0.0099221375 0.18057054 0.09978885 0.14555028 0.12758528 0.1844715 0.030535383 -0.13925926 0.16375183 0.061276067 -0.13934438 0.018968292 0.11209047 0.18958372 -0.014851212 0.20754783 0.064907186 -0.12724254 -0.0679188 0.19300507 0.047974076 -0.043768875 -0.09440775 0.07686038 -0.13728611 -0.04721036 -0.10360119 0.005581792 0.10758206 0.09372731 -0.23407753 -0.08057717 0.17563331 -0.058886833 0.20726919 0.07801764 -0.039423738 0.037391223 0.21585666 -0.11857371 -0.022448076 0.08910626 -0.0039146366 0.14048304 0.017833684 -0.26695412 -0.31716123 0.053187642 -0.038812645 -0.2540601 0.00301741 0.06389149 0.107418075 0.02304387 -0.11442795 0.107141666 -0.107741825 -0.0028374966 -0.19144617 -0.025778648 -0.06584892 -0.013236906 0.06738557 0.048150137 0.0014392238 -0.04687946 0.21730019 0.10313986 0.06342349 -0.09926542 -0.19636966 0.04865354 0.07014907 -0.045158945 -0.11553507 -0.040168907 -0.012677203
1 0.09115651 -0.09406632 0.20309734 -0.12913932 0.05941481 -0.045197237 -0.00653856 -0.01702495 0.14913361 -0.057690796 0.18539484 0.06353585 0.07437245 -0.19054914 0.16122137 -0.044871572 -0.07997919 -0.10148375 -0.011200596 -0.09317712 -0.030396052 0.06101881 -0.0634612 0.05268262 -0.16151485 0.22328395 0.08993178 0.2022179 0.22938268 0.055684034 -0.18264972 0.033939134 -0.046830248 0.09141188 -0.038928628 0.14089566 0.26012656 0.1446701 0.36594748 -0.051879752 -0.07162025 -0.09101704 -0.14416459 -0.020896815 0.27536663 -0.06435733 0.20400971 -0.23018399 -0.07760459 -0.08458193 0.0010557476 -0.140812 0.021423457 0.25199252 0.18628377 0.012394718 0.06485108 0.05518286 -0.24491598 -0.08227352 -0.07866412 -0.13692482 0.1621756 0.13136916 0.08825796 0.1256397 0.057632733 0.063562796 -0.1373572 -0.1584855 0.20357695 -0.02645947 -0.15352595 0.103022754 0.06103057 0.039477553 0.0103763435 -0.16245626 0.28033572 0.008378856 -0.030806623 -0.15308383 0.0331273 0.16611066 -0.10680036 0.103179984 -0.02808455 -0.11595371 0.16377114 -0.016039362 -0.087178074 0.13262072 0.21507227 0.083633535 0.13696979 0.086651504 -0.2440823 -0.19122082 0.23108165 -0.14167558 -0.21538648 0.043460064 0.018294565 0.022831986 -0.15108985 -0.020689169 0.017846847 -0.22673133 -0.008413405 0.028879229 -0.023520192 0.07622068 -0.020240497 0.15453595 0.048037723 -0.0063822153 -0.04177493 0.081811905 0.021660615 0.09790356 0.11330519 -0.0978821 0.05622908 0.19377095 -0.12139592 -0.21197677 0.03527283 0.011863181
33 0.1206539 -0.055114176 0.14806072 -0.06585505 0.00875375 -0.11051046 0.00017822658 0.06105871 -0.018151712 0.026744206 0.23360705 -0.025565797 -0.14544289 -0.03596074 0.12694582 -0.022117043 0.053049576 -0.07407501 -0.09350934 0.0247475 0.12537017 0.08508907 0.05919786 0.106595054 -0.12582707 0.13018806 -0.11024057 0.17055474 0.06995365 -0.09220692 -0.1649204 0.0063445936 0.05634115 -0.03348246 -0.06599393 -0.03274463 0.24172944 -0.039138556 0.21169308 0.03320756 -0.065050244 0.024011498 -0.056014393 -0.1139132 0.036734264 -0.03792019 0.13001528 -0.055750784 -0.01712502 0.050950952 0.03418201 -0.013820707 0.13858761 0.104902856 0.1445482 0.10169028 0.15391432 0.034552306 -0.13977452 0.09378079 0.02450884 -0.1275718 0.042321652 0.112941526 0.15829757 0.02302587 0.1766638 0.062242303 -0.1310508 -0.08038289 0.19653304 0.038594708 -0.059244487 -0.02864502 0.070154205 -0.090546526 -0.04302484 -0.1206969 0.078853816 0.08376673 0.08107534 -0.20281218 -0.0675201 0.15841955 -0.07046507 0.18517132 0.04829685 -0.04562084 0.06210843 0.14820008 -0.090395376 0.01888279 0.1296933 0.008831883 0.12982453 0.04482715 -0.2425689 -0.265669 0.08114514 -0.056429192 -0.208006 0.027091319 0.05489334 0.07755968 -0.01448296 -0.08182222 0.089688584 -0.1093617 -0.009288839 -0.13250159 -0.02711112 -0.025926162 -0.022098929 0.08002641 0.054487377 -0.011635552 -0.03271384 0.17666273 0.07689235 0.06272706 -0.05083961 -0.16099603 0.035072714 0.08276936 -0.049813833 -0.12113026 -0.016567932 -0.0016301563
3 0.11715553 -0.081592724 0.18501267 -0.08290075 0.018592414 -0.1131528 -0.012362186 0.045155372 0.013968634 -0.0012604012 0.25776768 -0.02221158 -0.10308267 -0.06795293 0.117616825 -0.05551106 0.01311411 -0.0626702 -0.08346652 0.00052266463 0.11781628 0.06268063 0.035963446 0.09837055 -0.1477569 0.16348611 -0.09659033 0.17323343 0.09688289 -0.05693178 -0.17522705 0.025128387 0.033242702 -0.007327194 -0.0422522 -0.027230842 0.25032017 -0.0013120925 0.26610097 0.02558142 -0.07361538 0.029793022 -0.097968385 -0.10589466 0.08377313 -0.05277211 0.15436365 -0.09513678 -0.022265429 0.027764602 0.030964382 -0.059063364 0.12616499 0.16795766 0.15708236 0.095760755 0.13386703 0.031804286 -0.19075094 0.08383873 0.03931122 -0.15360062 0.07052416 0.1278012 0.14855886 0.0241055 0.14686204 0.07171852 -0.1050385 -0.10526518 0.1785941 -0.0045783687 -0.08777561 -0.03516226 0.06553668 -0.07759647 -0.030422974 -0.12469935 0.10128493 0.08331601 0.043772645 -0.20477492 -0.020772627 0.17348062 -0.06375789 0.17241733 0.028791018 -0.061597425 0.0801557 0.13626498 -0.10735019 0.04538485 0.10905652 0.038174555 0.14713413 0.019887961 -0.2596878 -0.26813915 0.111330815 -0.078161374 -0.24724573 0.01018681 0.045640044 0.06132764 -0.052171294 -0.066056594 0.07158436 -0.1478683 0.009656925 -0.12945268 -0.01766177 -0.020886503 0.0012890764 0.088435955 0.055476766 -0.00847481 -0.052784067 0.1672397 0.07519717 0.06603522 -0.034629524 -0.15812919 0.046837274 0.12526226 -0.0893275 -0.14523508 -0.012442922 -0.015630633
2 0.08733217 -0.1102014 0.18727392 -0.12024018 0.028723978 -0.07475903 -0.008955162 0.004022117 0.08064666 -0.039327756 0.21033722 0.035247017 -0.009307254 -0.1276998 0.13383274 -0.059102204 -0.04769764 -0.060989752 -0.02787719 -0.057488155 0.04022456 0.039930087 -0.031825777 0.07639518 -0.1490544 0.18385427 0.009834046 0.16868427 0.181916 0.0045157857 -0.1831092 0.026888825 -0.0055302596 0.045496754 -0.020340914 0.08938837 0.23605454 0.08186516 0.30218554 -0.028070286 -0.06153414 -0.020591797 -0.13232446 -0.048916727 0.19814248 -0.059585538 0.16285594 -0.18127295 -0.037253328 -0.046128143 0.016905846 -0.11237587 0.058285717 0.21129446 0.17058101 0.047186647 0.059650384 0.036241274 -0.20616825 -0.015992247 -0.013244288 -0.13156421 0.11439948 0.12802483 0.08360345 0.09098344 0.07373974 0.07333752 -0.10539383 -0.13779141 0.18419676 -0.041032612 -0.12549545 0.036551736 0.05521547 0.005773385 -0.013889644 -0.14487413 0.21311791 0.04239272 -0.0027900152 -0.16440804 0.036875516 0.1705752 -0.073004976 0.102337904 -0.0017938686 -0.10661454 0.13792299 0.0287316 -0.087183274 0.105733 0.15669395 0.072048545 0.15501843 0.060519326 -0.25056657 -0.20842388 0.17812087 -0.11460543 -0.22532745 0.04907113 0.022326505 0.022437165 -0.10300154 -0.010038029 0.03628912 -0.18822595 0.0012810595 -0.047748577 -0.013068212 0.03896687 -0.011109561 0.11934222 0.05492557 -0.01870234 -0.02754596 0.10712348 0.04124461 0.09239703 0.056389812 -0.10517609 0.03756376 0.16144748 -0.1165198 -0.17562196 0.019339971 -0.0077298093
32 0.1373383 -0.058606096 0.16921459 -0.066825524 0.037721463 -0.10337253 -0.0015672982 0.042787727 -0.005966236 0.0103997765 0.2502388 -0.0561402 -0.117981315 -0.054569453 0.1335894 -0.06353188 0.048573744 -0.09903939 -0.0985751 -0.0034819131 0.092925504 0.07640141 0.05739214 0.11181637 -0.11460609 0.1671425 -0.082239866 0.17645454 0.07725024 -0.07482128 -0.15861616 0.039835453 0.031552736 -0.017083019 -0.07244868 -0.06818657 0.23349188 0.008155407 0.22690491 0.032748874 -0.06612983 0.003529367 -0.07999326 -0.09918352 0.068219274 -0.056862153 0.12433368 -0.05506639 -0.014304818 0.07901865 -0.00047678253 -0.023249727 0.1360192 0.13438669 0.11283463 0.09934911 0.14762563 0.018648267 -0.15644372 0.11091513 0.034379732 -0.1309161 0.06797905 0.13069752 0.1608486 0.0070258216 0.16678077 0.031819273 -0.12239182 -0.08318976 0.18047059 0.032448273 -0.06083966 -0.0431649 0.07285672 -0.08406942 -0.0267076 -0.08102793 0.053454693 0.085152574 0.035961438 -0.19308999 -0.06094967 0.13720159 -0.08786375 0.17769237 0.030863166 -0.031992454 0.05240217 0.15208434 -0.11692914 -0.0009038388 0.09622852 0.008176942 0.095115155 0.021996642 -0.23496783 -0.2583658 0.06801345 -0.04655088 -0.20722736 -0.013944956 0.033253502 0.10209913 -0.008643964 -0.09683985 0.07831113 -0.14734133 0.012203198 -0.09892677 -0.02441016 -0.022279162 0.018325144 0.06649468 0.021237303 0.002903916 -0.08988207 0.16240561 0.07783258 0.06746506 -0.03290301 -0.16442442 0.043848343 0.12528944 -0.053541973 -0.12271011 -0.03465598 0.005116438
4 0.08623558 -0.08721368 0.16833153 -0.0973817 0.03814446 -0.06894098 -0.010588501 0.009583378 0.08745533 -0.03652049 0.19685575 0.014798886 -0.0045341337 -0.1225347 0.12453384 -0.04499356 -0.03215159 -0.07282299 -0.026637668 -0.03975666 0.033789206 0.045292035 -0.027571138 0.061676018 -0.14401552 0.17562962 0.009384742 0.16004717 0.15531735 0.00346197 -0.1565327 0.024628306 -0.015617785 0.05011547 -0.032071516 0.07612299 0.24243306 0.08352933 0.3071802 -0.022457179 -0.07573121 -0.029621366 -0.11394568 -0.056328475 0.19102821 -0.06093653 0.17362131 -0.15794449 -0.049872536 -0.02595616 0.0015959565 -0.10285903 0.07010114 0.21032119 0.17209896 0.042752314 0.08561144 0.045432225 -0.2124264 -0.01245369 -0.021494525 -0.1374123 0.11480588 0.115164325 0.11394375 0.08428514 0.08684826 0.063123085 -0.11599135 -0.12319127 0.18551776 -0.027247086 -0.12014658 0.037463725 0.061328214 -0.011226854 -0.010586556 -0.13571604 0.18795435 0.047464084 -0.003920051 -0.1713623 0.011357477 0.160536 -0.08022396 0.116754495 0.00031889277 -0.09267637 0.12268809 0.04224683 -0.08641285 0.081463024 0.14768748 0.060642306 0.14169975 0.05705095 -0.2416812 -0.20549902 0.16002785 -0.10197372 -0.2233367 0.02575483 0.017192971 0.035306152 -0.09442199 -0.027820366 0.03255127 -0.1839596 -0.0059651006 -0.045955304 -0.02801547 0.03265728 -0.0048549287 0.10949284 0.05089574 -0.01088186 -0.04226312 0.11200452 0.04083075 0.07735264 0.0474164 -0.11256265 0.040270496 0.15556616 -0.09823821 -0.16843095 0.02958877 0.008017201
14 0.11602706 -0.070596956 0.18021543 -0.08869814 0.024272602 -0.109675564 -0.005155333 0.052393395 0.0113533735 -0.00608188 0.22700395 -0.013814014 -0.096937194 -0.06590221 0.1267331 -0.05698996 0.014798533 -0.060399562 -0.07180555 0.008140828 0.102173336 0.04654328 0.02643302 0.091292396 -0.12705533 0.15363602 -0.07125897 0.16457851 0.11049652 -0.050440185 -0.16782783 0.035974596 0.03324861 -0.006788947 -0.03849332 -0.009357107 0.2309524 0.022850635 0.234512 0.02023158 -0.07015891 0.022841677 -0.09630288 -0.08197283 0.10264796 -0.043221183 0.1318237 -0.09197952 -0.02169219 0.031890128 0.0073391492 -0.04296005 0.11825117 0.16171414 0.14637108 0.092519045 0.11007069 0.038997456 -0.16275574 0.057224512 0.018998407 -0.13441409 0.07600674 0.118850134 0.1290026 0.041346353 0.13705958 0.05930562 -0.11325205 -0.09769152 0.170449 -0.0049452395 -0.07745617 -0.027301572 0.06703464 -0.052837763 -0.03580899 -0.12220936 0.10680501 0.063973226 0.03616932 -0.19648041 -0.017763423 0.15935406 -0.06465704 0.14247309 0.029021056 -0.060098357 0.085920565 0.10751858 -0.10332037 0.04005709 0.1163257 0.040131092 0.12139339 0.040402077 -0.2361935 -0.23543423 0.11526891 -0.079321794 -0.23176576 0.021098735 0.040607516 0.059228722 -0.042336207 -0.052903607 0.0720373 -0.15561117 -0.0051330146 -0.107666925 -0.021409342 -0.0068563647 -0.008964624 0.072140664 0.052296866 -0.01773328 -0.035358947 0.14492556 0.06672684 0.07453767 -0.0155728785 -0.14577527 0.04569645 0.114016525 -0.0874175 -0.13688247 2.7427333e-05 -0.0069418303
24 0.1499173 -0.026307588 0.14788972 -0.035975266 0.03123227 -0.12556201 0.006433987 0.08226882 -0.048518196 0.049344104 0.2672413 -0.07700834 -0.18336603 -0.021582015 0.14391696 -0.04543816 0.0989027 -0.10624181 -0.13580684 0.04460224 0.1301542 0.09839863 0.095574334 0.13860744 -0.11363716 0.15381007 -0.13766706 0.19745861 0.03300879 -0.12307549 -0.16173784 0.02944325 0.070585795 -0.0688094 -0.101964965 -0.1234208 0.24159388 -0.060903993 0.1977404 0.060305595 -0.09052283 0.03705328 -0.06401396 -0.14124003 0.0025505282 -0.05254827 0.11141594 0.018774513 -0.005028177 0.14125243 0.012856297 0.03141398 0.19615692 0.085300244 0.10356085 0.14048941 0.20437095 0.030604104 -0.13001657 0.17779137 0.03326912 -0.12897845 0.031614125 0.1300333 0.21268618 -0.015100973 0.23538621 0.032704182 -0.1424938 -0.05423454 0.20075418 0.076962024 -0.027296128 -0.07683669 0.0901624 -0.1374196 -0.038893335 -0.07499002 0.00985572 0.1144672 0.07888474 -0.2417399 -0.11857442 0.153764 -0.1012641 0.22165811 0.06715506 -0.00629459 0.026827596 0.20886526 -0.11187972 -0.041502245 0.10814345 -0.019337116 0.092192575 0.016592719 -0.2429502 -0.30404663 0.03767758 -0.031568997 -0.22501509 -0.029267991 0.046031345 0.13633776 0.03273141 -0.1367256 0.11353812 -0.12460101 -0.0026008554 -0.14059491 -0.022270164 -0.06002607 0.0013485838 0.06605426 0.020029936 -0.008103526 -0.091735914 0.20504974 0.10265856 0.07044858 -0.09081441 -0.21104519 0.0629899 0.084778406 -0.029537674 -0.10864308 -0.047278553 -0.003634609
30 0.14683995 -0.043963533 0.15235035 -0.051693358 0.0067761876 -0.13257243 -0.0031766978 0.08134498 -0.051471308 0.041536283 0.26814902 -0.06958204 -0.19704795 0.0012083511 0.12718715 -0.039847024 0.07798511 -0.066596955 -0.12235426 0.05037518 0.16791722 0.086565256 0.094372146 0.13077629 -0.12512611 0.14054434 -0.16128631 0.1699927 0.0384186 -0.11289196 -0.17454135 0.025622228 0.08172038 -0.06508485 -0.080751054 -0.11055594 0.25142384 -0.06089038 0.19734584 0.052058585 -0.087506294 0.067136906 -0.062430345 -0.14845876 -0.009005657 -0.04855435 0.107219405 -0.014942437 -0.0044690385 0.10935148 0.03544236 0.0026839885 0.18664292 0.10730988 0.12797895 0.14146958 0.18860584 0.026318831 -0.1476561 0.15597214 0.053627316 -0.14300972 0.02576934 0.11677877 0.19144501 -0.0132562155 0.21347155 0.050426077 -0.123059794 -0.06715854 0.18564166 0.057162046 -0.043905538 -0.07699289 0.07337884 -0.12547864 -0.053846803 -0.086258925 0.0035748694 0.11062664 0.08523007 -0.23483175 -0.08948107 0.15441285 -0.07032661 0.20214224 0.07019495 -0.030112656 0.03392697 0.21443863 -0.119223274 -0.02042651 0.084196866 -0.010504894 0.13378887 0.013530644 -0.25527656 -0.30022708 0.052545816 -0.041949082 -0.2362864 -0.008620814 0.05733179 0.099685766 0.015955476 -0.11040992 0.11037637 -0.10307248 -0.007571305 -0.17396335 -0.016161595 -0.061774164 -0.0065267533 0.06482886 0.04689919 -0.0049097682 -0.06512112 0.20707566 0.106768295 0.07174382 -0.08862326 -0.20135866 0.045814905 0.077551395 -0.039322972 -0.120505825 -0.047932412 -0.010198468
8 0.08226634 -0.072700866 0.16510351 -0.088097095 0.0416461 -0.052136492 -0.0023801234 -0.010150097 0.10216198 -0.04171089 0.1749259 0.024988271 0.041445773 -0.15374859 0.14770393 -0.039605577 -0.038695812 -0.08530319 -0.016902804 -0.05648646 -0.010472184 0.06731099 -0.046896193 0.060316876 -0.14080608 0.18255018 0.044261843 0.16451316 0.17522486 0.019972883 -0.16596319 0.033938266 -0.03108606 0.058111392 -0.036963113 0.099726036 0.24937673 0.11101936 0.31528705 -0.033388697 -0.07273406 -0.066666275 -0.112228274 -0.029236346 0.22317405 -0.05403965 0.17655066 -0.18519746 -0.059136398 -0.03223735 0.0040759984 -0.10491001 0.062208593 0.2141675 0.17197466 0.035011485 0.078833394 0.055577047 -0.2266762 -0.03341772 -0.052388232 -0.13172036 0.13925865 0.12578224 0.11318693 0.08932163 0.08639099 0.049893264 -0.12300534 -0.13900504 0.20282628 -0.007648374 -0.13909775 0.068845704 0.06452784 0.010520039 0.0006362706 -0.14198227 0.2184953 0.03863446 -0.00581415 -0.15868212 0.012636185 0.16355471 -0.09575138 0.12521291 -0.010341383 -0.09171841 0.13341519 0.019303085 -0.089340605 0.09410143 0.17915359 0.07067616 0.13872227 0.08473035 -0.24109627 -0.19554113 0.18580957 -0.119582795 -0.20661974 0.019895071 0.027675334 0.045166593 -0.112100534 -0.03633186 0.04235463 -0.19285104 -0.008256475 -0.009961106 -0.02058254 0.05254024 -0.00617794 0.1312791 0.035625804 -0.014954768 -0.04549472 0.09643763 0.026371237 0.098356105 0.08297997 -0.10454514 0.04703721 0.16019677 -0.08754395 -0.1860458 0.027075987 0.02112034
9 0.118329495 -0.07212567 0.162462 -0.07713278 0.013145975 -0.09527869 -0.011747915 0.045224283 0.024320424 0.0008105783 0.21941933 -0.02350014 -0.0868211 -0.056941323 0.119466044 -0.04222129 0.014493466 -0.07125917 -0.075333744 -0.009424716 0.0968338 0.06393496 0.022778932 0.089089304 -0.12554958 0.13898323 -0.0757627 0.15145986 0.09361338 -0.04889764 -0.14780535 0.027522825 0.03968752 -0.010696254 -0.045634225 -0.011833562 0.23550108 0.0046519167 0.22829469 0.017725786 -0.069562234 0.011154897 -0.08070998 -0.090416536 0.08128961 -0.05657157 0.13317117 -0.08759904 -0.018190559 0.033484526 0.021947144 -0.039920755 0.104882516 0.13351624 0.14171357 0.08655456 0.13136502 0.038711265 -0.1670718 0.06751274 0.0146483835 -0.13289376 0.06079959 0.10893825 0.1482279 0.035982814 0.14280501 0.051750496 -0.11220957 -0.09576506 0.18278138 0.021231972 -0.0847507 -0.011530822 0.07278326 -0.074676804 -0.02568582 -0.11697809 0.11202041 0.06903644 0.042529542 -0.19593462 -0.031780444 0.15180105 -0.07150811 0.16962011 0.028736858 -0.05751568 0.073260926 0.12821825 -0.099331714 0.05156283 0.123648435 0.030276151 0.13062684 0.044565156 -0.23901787 -0.24831685 0.09648917 -0.064551964 -0.21254538 0.022708526 0.03569423 0.057315577 -0.04265945 -0.065267526 0.059789542 -0.1334691 -0.004044614 -0.091679096 -0.019190725 -0.012053459 -0.008909702 0.0915336 0.041416865 -0.0041771526 -0.050348278 0.14843003 0.06207048 0.07281033 -0.0153046595 -0.15610284 0.0398273 0.10369414 -0.061376166 -0.12263384 -0.012781692 0.005349273
28 0.14270009 -0.057745922 0.15239564 -0.049096446 0.034541726 -0.13375612 -0.0017992199 0.06955852 -0.025040789 0.031459417 0.26641715 -0.07063743 -0.1411785 -0.045911852 0.12770934 -0.06198294 0.075099565 -0.07766562 -0.10388792 0.025529457 0.12967762 0.073382676 0.07676157 0.12832582 -0.10860372 0.15182051 -0.11579113 0.18287925 0.07804331 -0.09757036 -0.16874014 0.044979874 0.053542223 -0.034364834 -0.08468737 -0.09056607 0.23930366 -0.019942163 0.22534615 0.046966482 -0.072249696 0.027783887 -0.07509253 -0.122709304 0.04033707 -0.053072844 0.11424233 -0.031001937 -0.007165004 0.11119253 0.00073095236 -0.018276164 0.1648252 0.1317458 0.116859674 0.11989227 0.15541139 0.009622018 -0.15861437 0.14407834 0.053886767 -0.118632376 0.052964196 0.12822911 0.17611966 -0.01902753 0.18885542 0.03504897 -0.10320391 -0.06524081 0.17403573 0.04571702 -0.05146888 -0.06858113 0.06880126 -0.11135918 -0.04116767 -0.065004945 0.023368279 0.116673365 0.036455434 -0.2077927 -0.07338211 0.1380209 -0.06333987 0.19354938 0.04546295 -0.030307543 0.045369994 0.18224034 -0.11596699 -0.030011537 0.07454489 0.004953754 0.10225557 0.008992604 -0.23326702 -0.27918026 0.060645208 -0.031245902 -0.22048093 -0.01579279 0.028914982 0.094464794 0.0022500805 -0.103778675 0.08527108 -0.13128203 0.010837726 -0.12897833 -0.026089549 -0.042647567 0.019198103 0.06316956 0.02304899 -0.014424812 -0.08484274 0.18219824 0.086523294 0.067636564 -0.06716826 -0.18367925 0.03563154 0.10870007 -0.04766416 -0.10949677 -0.037859015 -0.00058096985
7 0.10487687 -0.034206744 0.12294292 -0.039894268 0.069197804 0.02594425 -0.0020395163 -0.029939128 0.15688024 -0.056117464 0.07611568 0.028115774 0.10513913 -0.2001186 0.19357823 0.0055453726 -0.05379335 -0.18419445 -0.046625957 -0.116521195 -0.10497153 0.12990233 -0.049421843 0.051174995 -0.12058133 0.2010092 0.15022565 0.2062779 0.16941114 0.04517277 -0.11142659 0.014277533 -0.037917335 0.07218729 -0.104559876 0.12379003 0.25565717 0.10899282 0.31014872 -0.037113387 -0.091588475 -0.18255731 -0.08389607 -0.0043398817 0.2196196 -0.07674743 0.20585579 -0.1724371 -0.08561093 -0.059634216 0.002072764 -0.09101261 0.014924775 0.17914468 0.12674269 -0.0012362582 0.13646603 0.05695918 -0.22934031 -0.063773155 -0.15321319 -0.11312991 0.16772538 0.11394017 0.1261863 0.13824344 0.11403626 0.019303357 -0.19285834 -0.12368683 0.258948 0.07795839 -0.14691153 0.17361762 0.10284638 0.022509502 0.026624534 -0.167976 0.28950801 -0.027606934 0.005484436 -0.14537725 -0.043212947 0.110852815 -0.18576758 0.1695207 -0.04327866 -0.04487285 0.11285716 -0.013468649 -0.042623326 0.13023588 0.31717885 0.049450733 0.09263087 0.13903591 -0.21552108 -0.18835627 0.18614244 -0.113609344 -0.12283053 0.022481138 0.025729379 0.08405961 -0.111955754 -0.10078971 0.03754579 -0.18754357 -0.023791356 0.11895909 -0.030930674 0.068788454 -0.03035699 0.1953318 0.030642772 0.01633148 -0.0624448 0.060867187 0.009613026 0.08551186 0.13798237 -0.12264593 0.08536578 0.15870199 -0.014590853 -0.19524278 0.02190546 0.062125035
6 0.11390393 -0.042282604 0.1363316 -0.045310356 0.060799517 0.017532878 -0.009517874 -0.04184804 0.16800463 -0.058382757 0.072625905 0.034780458 0.09740879 -0.19936828 0.18461916 0.022169951 -0.05548 -0.18004727 -0.041368075 -0.10987644 -0.089003265 0.13973066 -0.032923687 0.059073273 -0.11862978 0.21147674 0.14494032 0.20300224 0.17421862 0.031155393 -0.11426842 0.004571449 -0.028523168 0.07478333 -0.10376242 0.1311381 0.26616463 0.09438755 0.31738427 -0.031177253 -0.099959195 -0.17671251 -0.08721838 -0.014878546 0.22125277 -0.06937889 0.2171554 -0.18167217 -0.102330506 -0.06605567 0.006287018 -0.08203184 0.010873676 0.18037777 0.12147117 0.006055978 0.14385563 0.06280528 -0.2349284 -0.06920195 -0.15158537 -0.11005404 0.17500779 0.12987563 0.12771305 0.13677694 0.12852857 0.018616537 -0.18311955 -0.113893546 0.2646464 0.08139989 -0.14964831 0.17849585 0.09973027 0.027881801 0.0140069565 -0.15626681 0.28496382 -0.03211659 0.012285945 -0.13816899 -0.031868722 0.10906073 -0.17973197 0.17735404 -0.057327155 -0.06259322 0.09873796 -0.002606528 -0.051915616 0.13283743 0.3166388 0.043215863 0.102758266 0.13638927 -0.21828738 -0.19673423 0.20233887 -0.11857885 -0.12191372 0.034014802 0.021659942 0.08055051 -0.11275517 -0.0973034 0.03372465 -0.17675447 -0.022848086 0.10730303 -0.039626412 0.064250104 -0.045394048 0.1971938 0.034323923 0.006490113 -0.052498247 0.053443626 0.008985517 0.09216566 0.13861708 -0.12951142 0.07140167 0.1580925 -0.012457005 -0.20152164 0.005449962 0.059105244
5 0.11086099 -0.053667534 0.15920398 -0.07940451 0.06934158 0.0044389092 -0.010398785 -0.044823613 0.17118318 -0.054091763 0.112371586 0.036850493 0.109337375 -0.21302538 0.190751 -0.0044403304 -0.06926059 -0.17621844 -0.03336355 -0.117802136 -0.091979444 0.12449306 -0.053173926 0.070207775 -0.13510486 0.23115666 0.142477 0.20798413 0.20459038 0.047781136 -0.14829805 0.018451676 -0.05168411 0.084901385 -0.08304677 0.14178714 0.26580387 0.1343186 0.3461049 -0.04059979 -0.09619922 -0.17697893 -0.108322494 -0.003341155 0.2570131 -0.06725773 0.20732221 -0.19730115 -0.09725627 -0.06906678 -0.015200986 -0.10351732 0.016641162 0.20638935 0.13330758 0.008331775 0.11315318 0.06471577 -0.24308218 -0.07679558 -0.14383738 -0.11534372 0.1817591 0.13241337 0.12536708 0.13800554 0.099944964 0.016910259 -0.17545728 -0.14176261 0.24700947 0.046876296 -0.15773892 0.16415499 0.08229752 0.032628864 0.012094223 -0.1501266 0.29788843 -0.013585467 -0.014724383 -0.14100204 -0.01798434 0.13296448 -0.17093584 0.1509196 -0.056109227 -0.07177764 0.1296388 -0.025622062 -0.05904334 0.13022171 0.29380637 0.06383225 0.10165817 0.12154844 -0.22593619 -0.17607653 0.2076478 -0.12750304 -0.1486279 0.026147109 0.008422828 0.07679444 -0.13474177 -0.076747924 0.031817008 -0.20833862 -0.026063884 0.10041467 -0.036207452 0.068114616 -0.025480386 0.18432905 0.022738358 0.0033810611 -0.064409226 0.06260379 0.0073754755 0.09592566 0.14401063 -0.118713796 0.06396757 0.18731308 -0.05255909 -0.2107612 0.016432881 0.049178015
20 0.10978708 -0.0659475 0.17489739 -0.08825827 0.0417836 -0.0766645 -0.00696945 0.02707868 0.05747334 -0.02067241 0.19068794 -0.005233588 -0.033387836 -0.09470732 0.13753074 -0.04933372 -0.015393387 -0.07522671 -0.056364097 -0.028619029 0.053251673 0.059110735 0.006651939 0.07869793 -0.13330783 0.16337849 -0.008418705 0.17858414 0.128544 -0.012582652 -0.15590656 0.028500047 0.0062219272 0.024376776 -0.05203789 0.02082272 0.22689915 0.057892095 0.26689047 -0.0028092696 -0.07710854 -0.02272722 -0.10751222 -0.06398945 0.1412081 -0.046113446 0.1636984 -0.12680013 -0.03696237 0.0036594786 -0.001431017 -0.06707403 0.08978208 0.18381904 0.15228356 0.07190701 0.10304945 0.04727528 -0.19491296 0.027013952 -0.015433662 -0.12703161 0.10964102 0.12604193 0.13092755 0.059215102 0.11311116 0.047232285 -0.114470825 -0.108827904 0.18278246 0.010383285 -0.098854005 0.016557137 0.06631046 -0.03190366 -0.015381959 -0.12224579 0.14236069 0.050792746 0.028720854 -0.17487557 -0.013264118 0.14961882 -0.08059972 0.14177276 0.009264864 -0.07705189 0.09044685 0.06795244 -0.09348167 0.055524755 0.14805366 0.0454995 0.1230775 0.053321317 -0.23913221 -0.22692877 0.13799064 -0.09470306 -0.21654208 0.014803224 0.035750918 0.06328143 -0.0801284 -0.05351424 0.051090654 -0.17013758 -0.00067591795 -0.05388163 -0.027559185 0.009571014 -0.0099108 0.10731027 0.035332996 -0.005452025 -0.043648712 0.11935541 0.054930896 0.07908514 0.020240681 -0.124500155 0.052675065 0.13708875 -0.07628231 -0.15326414 0.0019494694 0.003786636
25 0.14038078 -0.048656918 0.17082389 -0.05327013 0.036270276 -0.109846584 0.011895746 0.048478458 0.004968676 0.008028391 0.24923886 -0.045433093 -0.102176495 -0.07423708 0.16622266 -0.062673 0.046326574 -0.11358999 -0.09814144 -0.009696558 0.06939518 0.09458198 0.039113484 0.1200987 -0.11481421 0.1830865 -0.053592492 0.2084271 0.10442431 -0.06990861 -0.16707923 0.04057211 0.028999047 -0.022580713 -0.09242426 -0.05641756 0.2502668 0.020001773 0.2575633 0.030323153 -0.08488984 -0.010753201 -0.07708864 -0.09141246 0.09832998 -0.05547347 0.120872974 -0.047774605 -0.011779972 0.08702227 -0.013399437 -0.02511531 0.13961685 0.1396418 0.112159416 0.10223066 0.14106807 0.019759301 -0.16212666 0.10697686 0.013246 -0.12593786 0.06338155 0.13598108 0.16859575 0.015074807 0.15934697 0.02357444 -0.13075396 -0.08179193 0.19254813 0.042790376 -0.06944822 -0.028240532 0.08342444 -0.07501092 -0.027522692 -0.0750161 0.08731744 0.086619 0.020411048 -0.19737282 -0.06327381 0.13570103 -0.10628017 0.16703309 0.027594943 -0.02863088 0.07074534 0.13095085 -0.10810596 0.00301365 0.11424307 0.018993342 0.08236252 0.035570707 -0.22079708 -0.24586378 0.07629365 -0.043129258 -0.20667095 -0.011148723 0.030011326 0.105383314 -0.02704537 -0.08932141 0.08727679 -0.15617152 -0.0048969947 -0.06822587 -0.015308744 -0.0133745335 0.012179369 0.082410514 0.02094918 -0.0074531357 -0.09355238 0.15193987 0.069772735 0.061080296 -0.021817578 -0.16353862 0.0508391 0.13076897 -0.054765057 -0.1333087 -0.019054446 -0.0006588154
11 0.095603436 -0.04826175 0.13215277 -0.057708453 0.066236645 0.017214881 -0.015500976 -0.042266678 0.16074446 -0.054526478 0.09385335 0.040874563 0.11124109 -0.20302993 0.19218414 0.00064616534 -0.054746974 -0.17055573 -0.030613417 -0.12032119 -0.10222115 0.12780114 -0.057334125 0.055987198 -0.121003695 0.20647314 0.14911732 0.20179364 0.16558206 0.041136123 -0.113419645 0.0063829077 -0.030899495 0.08505525 -0.09073515 0.13669692 0.25489822 0.11911651 0.31398994 -0.04066494 -0.09418124 -0.18370645 -0.093834415 -0.00053007563 0.22985864 -0.07141054 0.21090642 -0.17652129 -0.08664808 -0.05838509 -0.012654495 -0.08694744 0.0074129933 0.19237989 0.12817174 -0.0005872072 0.11174739 0.059408545 -0.23085351 -0.05877384 -0.14395696 -0.10479462 0.17194551 0.108199395 0.12434074 0.14834535 0.10009433 0.018917697 -0.18357445 -0.13123278 0.25163415 0.05501931 -0.13986324 0.16620007 0.095714375 0.03189897 0.018485256 -0.16468109 0.29108223 -0.026979763 -0.0035594788 -0.1369978 -0.033921618 0.12394645 -0.18555291 0.16532847 -0.05261103 -0.06746183 0.107372984 -0.026745351 -0.056348562 0.14057957 0.3093692 0.05746223 0.09909651 0.14186934 -0.21450785 -0.1748477 0.19505714 -0.12195555 -0.13735604 0.016513899 0.026361175 0.07438741 -0.1305994 -0.08585711 0.028772688 -0.18250526 -0.024616959 0.11114056 -0.042300645 0.07252793 -0.026687121 0.18928805 0.018653942 0.004371378 -0.064615585 0.046656754 -0.008091107 0.08816216 0.13551089 -0.11693604 0.07313663 0.1566895 -0.028418384 -0.19240147 0.028364379 0.06674294
26 0.1692277 -0.04497586 0.18513933 -0.057302065 0.056529514 -0.13821468 0.018165777 0.07298236 -0.027079068 0.02072807 0.28733063 -0.079166025 -0.13712256 -0.056535173 0.17113452 -0.06790607 0.080684476 -0.12303954 -0.120632455 0.020892689 0.11157798 0.094969794 0.07789783 0.14610076 -0.10371659 0.1865725 -0.09015527 0.22212365 0.08429812 -0.09408301 -0.17366956 0.04870585 0.056823794 -0.042610206 -0.10768299 -0.11767445 0.24163955 -0.003744258 0.22253416 0.041616652 -0.078075804 0.008245532 -0.075894184 -0.10921475 0.05205015 -0.053178992 0.111460045 -0.012565618 0.0070689875 0.124652 -0.01643419 0.0071163406 0.16825615 0.12417706 0.09525534 0.12581192 0.17495613 0.020772193 -0.14623153 0.14359893 0.029876212 -0.12700237 0.058773402 0.12798446 0.19175342 -0.01438999 0.20368537 0.013693588 -0.12314362 -0.054845337 0.19209117 0.05803845 -0.045122538 -0.061953396 0.07959804 -0.10189373 -0.031024817 -0.06343919 0.02538019 0.106419206 0.04007715 -0.2130334 -0.09613231 0.13928443 -0.09290685 0.20080534 0.034276057 -0.01885261 0.03499134 0.1746493 -0.1254463 -0.036316708 0.09308127 0.0008173904 0.06524318 0.013233166 -0.22442177 -0.2634376 0.04888993 -0.028729206 -0.21674542 -0.031167813 0.030920206 0.12938711 0.013770584 -0.1169422 0.10280217 -0.15180281 0.0037219455 -0.10819104 -0.013785532 -0.039707344 0.009797812 0.054877024 0.014966835 -0.011690669 -0.10405408 0.17322299 0.08401002 0.061894543 -0.065615445 -0.19143787 0.059072692 0.11143993 -0.04811214 -0.11406707 -0.051994964 0.0015535187
31 0.12253341 -0.06725772 0.16648637 -0.06377869 0.032069527 -0.09971295 0.009375009 0.045554776 -0.007403168 0.0032003317 0.21815199 -0.039798632 -0.116746984 -0.048522267 0.117879584 -0.052290585 0.025980888 -0.05911013 -0.081183165 0.013870752 0.116346695 0.065688565 0.0397242 0.099608235 -0.12255178 0.13840255 -0.08258896 0.16881864 0.07514316 -0.05832604 -0.15327467 0.028688394 0.0506862 -0.021968115 -0.05272222 -0.04789701 0.20735364 0.00029655575 0.2045784 0.027948558 -0.07415288 0.025114663 -0.0889773 -0.09147133 0.06730752 -0.041205164 0.124771126 -0.06261161 -0.021247711 0.05829769 0.00787386 -0.02308014 0.12627932 0.13374798 0.120591834 0.08885207 0.12642325 0.023744084 -0.14910707 0.080424316 0.034765683 -0.12961845 0.0663251 0.10639014 0.13129783 0.01475366 0.13997371 0.058975507 -0.10994624 -0.07196954 0.17165811 0.02158876 -0.06352519 -0.027529495 0.06609315 -0.06965321 -0.042195067 -0.10387073 0.07396518 0.07385529 0.050696995 -0.19545422 -0.040672734 0.14903353 -0.0645288 0.1533731 0.042069264 -0.056119025 0.07114602 0.1320365 -0.09583374 0.02465443 0.102212384 0.024862384 0.11750998 0.030691607 -0.22704367 -0.2461652 0.077446036 -0.06665427 -0.2136577 0.0050595896 0.0352799 0.0640589 -0.03414328 -0.06703979 0.07652541 -0.13014555 -0.0019439355 -0.10779175 -0.019200662 -0.026948212 -0.0050910246 0.07086431 0.04015844 -0.017048826 -0.03736825 0.15620722 0.06598726 0.06886719 -0.032430194 -0.14449944 0.045520388 0.108728334 -0.06559077 -0.1255215 -0.017757237 0.0046244687
29 0.1257458 -0.06296055 0.17402019 -0.078451954 0.021779073 -0.12513621 -0.00694594 0.04796247 0.006290749 0.014104299 0.260505 -0.032088637 -0.114377186 -0.053115062 0.1279086 -0.045052823 0.046572 -0.075090304 -0.07836003 0.003477009 0.11654137 0.07415518 0.050285053 0.09702739 -0.12873046 0.15877488 -0.09616024 0.17346771 0.09847572 -0.07452278 -0.17522229 0.034493066 0.033812866 -0.013106191 -0.06326717 -0.035700276 0.24811712 -0.0052844975 0.2468857 0.02491589 -0.07983371 0.019907964 -0.08220652 -0.11732173 0.077150024 -0.05608852 0.13495368 -0.081960395 -0.021577938 0.0733514 0.022063471 -0.04263233 0.1369028 0.1494308 0.14384343 0.09899184 0.14344901 0.036131 -0.18345603 0.09971875 0.031130815 -0.13476919 0.063533984 0.12008242 0.1686169 0.011434584 0.1707022 0.056140408 -0.11181524 -0.08874499 0.18681028 0.027650073 -0.080135785 -0.047262818 0.07351988 -0.089306004 -0.03801354 -0.10397714 0.06907105 0.09290021 0.04585617 -0.21253899 -0.048869308 0.16750571 -0.062105287 0.17096436 0.03561809 -0.06298955 0.065018944 0.14593935 -0.11540357 0.006114222 0.103023276 0.020795114 0.13274017 0.029980382 -0.24720097 -0.2828197 0.09441841 -0.06484235 -0.23329093 0.0055584023 0.04241035 0.08328447 -0.02677851 -0.09029238 0.083832756 -0.14238861 0.0036623073 -0.121410765 -0.030525735 -0.0252927 0.0047426717 0.0813411 0.033643533 -0.00484721 -0.06683609 0.1781817 0.08309193 0.06920658 -0.037537225 -0.1622704 0.03952802 0.11747423 -0.061638076 -0.13106179 -0.025186082 -0.000767881
13 0.094902776 -0.0684881 0.16055274 -0.091173954 0.05337134 -0.039735083 -0.0012098365 -0.00054733874 0.11430339 -0.04708566 0.15514642 0.03416187 0.04409439 -0.14641953 0.15808542 -0.025579743 -0.038038217 -0.110479325 -0.032396346 -0.06768321 -0.016593903 0.06831686 -0.048933197 0.05482701 -0.14037074 0.19180894 0.06540862 0.16717279 0.17011663 0.030803602 -0.15229507 0.016370459 -0.023340907 0.0670373 -0.059767295 0.096472725 0.23618715 0.09765976 0.31406024 -0.033074476 -0.08095961 -0.08074259 -0.11768488 -0.026070604 0.21036565 -0.06669301 0.17770192 -0.16754776 -0.06852764 -0.051033974 -0.0048078443 -0.10675627 0.055377096 0.20907624 0.15976563 0.0242509 0.093352 0.057095923 -0.21678543 -0.040440418 -0.07138982 -0.1272752 0.12731092 0.12425782 0.116858244 0.09627184 0.08547782 0.05325022 -0.1486439 -0.13925761 0.21420586 0.0021914253 -0.13630916 0.07459182 0.0706949 0.0102543775 -0.0047325366 -0.15302959 0.22592504 0.01581452 -0.009475845 -0.17009598 0.0076625687 0.16100655 -0.11804427 0.12042779 -0.021496855 -0.08760854 0.13254341 0.015793556 -0.08441651 0.100587204 0.19796276 0.06714793 0.1215687 0.080057144 -0.23113808 -0.19247219 0.18686193 -0.12324757 -0.19203608 0.017101848 0.01977325 0.044614036 -0.11544545 -0.04798759 0.036638934 -0.19252329 -0.0018450014 0.015526491 -0.02609886 0.056785047 -0.014243483 0.13784724 0.03443296 0.0013339084 -0.059600696 0.09124506 0.034989435 0.08218543 0.082281545 -0.11920183 0.060915533 0.16901793 -0.09355941 -0.18645525 0.03154351 0.019755138
27 0.13916233 -0.044499297 0.14549495 -0.041558657 0.011663205 -0.13281266 0.0016972149 0.076488815 -0.054250896 0.044191018 0.25981253 -0.073909834 -0.17706132 -0.006010172 0.12895219 -0.044391245 0.08139148 -0.07768778 -0.11225359 0.046461955 0.15324783 0.08365889 0.086997196 0.12344736 -0.12263834 0.13749504 -0.14726652 0.18007691 0.02946531 -0.1175851 -0.16408233 0.020116528 0.07400896 -0.058196094 -0.07812364 -0.10555338 0.2304125 -0.05896261 0.18575144 0.052881353 -0.07752647 0.060810328 -0.06727177 -0.13417894 0.0024781893 -0.044551354 0.11397617 -0.010032188 -0.0025759372 0.119880326 0.0289674 0.014260767 0.18406649 0.099113636 0.117897406 0.13060364 0.18317938 0.029894862 -0.14482251 0.16555697 0.053945646 -0.13791318 0.04101622 0.12273264 0.19501485 -0.011656217 0.20808934 0.0440748 -0.121287085 -0.07388259 0.18794215 0.046417642 -0.044195823 -0.08066412 0.08388545 -0.13316976 -0.044820193 -0.09948815 0.008970438 0.11423787 0.08129244 -0.23287693 -0.093417555 0.15982048 -0.073979646 0.20594421 0.07041036 -0.03052312 0.040557653 0.2015635 -0.11859132 -0.027625842 0.10131296 0.0009311748 0.11855629 0.02438128 -0.26014018 -0.31511286 0.05123538 -0.03868281 -0.2461777 -0.015232102 0.06109299 0.11068656 0.014729027 -0.114717714 0.10394219 -0.114474446 0.0018073192 -0.15720132 -0.026905343 -0.05751386 0.004188452 0.062422767 0.030689819 0.00096072466 -0.0589196 0.20226689 0.104927 0.06958053 -0.09180872 -0.19797851 0.044429988 0.091014214 -0.038902514 -0.12572113 -0.043182775 -0.008571754
19 0.15422839 -0.053581063 0.17372417 -0.051968705 0.0036659462 -0.12693664 -0.0033176814 0.0772562 -0.061854538 0.03713115 0.25802642 -0.07102636 -0.21812272 -0.0105014965 0.12018808 -0.03871682 0.09277801 -0.070013195 -0.12263795 0.052381683 0.18460155 0.092466354 0.11381412 0.13254145 -0.1373623 0.13181026 -0.17634167 0.16776274 0.022571396 -0.13705456 -0.15632299 0.020798868 0.07775414 -0.06965779 -0.08144298 -0.11716823 0.25032198 -0.083437756 0.18471014 0.051940527 -0.067042135 0.07008549 -0.061026502 -0.1519055 -0.018999923 -0.047459323 0.13116269 -0.015285849 -0.012750217 0.10507103 0.04317158 0.006784253 0.19387531 0.10518429 0.12218684 0.13639459 0.19170542 0.042696167 -0.14848968 0.16498585 0.06772463 -0.15192212 0.0363479 0.1287183 0.1914548 -0.01935944 0.2136922 0.0604642 -0.12522845 -0.07464819 0.20359893 0.05079007 -0.03773288 -0.06904693 0.07375307 -0.13262211 -0.06349675 -0.119940355 0.0102083385 0.1144944 0.11212941 -0.24298103 -0.09484765 0.16831717 -0.069508344 0.22980097 0.07285037 -0.028582329 0.034714453 0.21856368 -0.11777037 -0.012271623 0.11299409 -0.011856485 0.13804132 0.019771097 -0.2521284 -0.30537418 0.042901374 -0.040200915 -0.23876022 0.0024346951 0.06544051 0.10542136 0.018064423 -0.119618766 0.111228175 -0.08783592 0.005673176 -0.18620457 -0.028727911 -0.07564965 -0.011589805 0.06743008 0.04285255 -0.011224483 -0.029608209 0.21425343 0.11138287 0.06474196 -0.10546798 -0.20554765 0.04501144 0.063205644 -0.043599464 -0.12362294 -0.046436872 -0.013398875
10 0.12191191 -0.07713994 0.16461565 -0.08006895 0.023007514 -0.11244253 -0.010421271 0.0531022 0.012207623 0.00185328 0.25184897 -0.024288382 -0.115608685 -0.05778162 0.120655894 -0.046210535 0.026941737 -0.06726832 -0.07433326 0.00081883057 0.10877776 0.059940327 0.046519924 0.09415952 -0.12785287 0.15034968 -0.08926278 0.17144132 0.09403506 -0.0580836 -0.16729774 0.023360092 0.04086517 -0.01698323 -0.045380846 -0.034039464 0.22817168 -0.003325813 0.24223648 0.021410914 -0.06683618 0.02039907 -0.0924425 -0.1080614 0.08475648 -0.054569606 0.1390237 -0.08402366 -0.0199202 0.056216083 0.016229682 -0.046823245 0.13046542 0.15803432 0.15000887 0.09221097 0.13109499 0.036957905 -0.17519853 0.092370205 0.030347522 -0.13381344 0.07084863 0.12536158 0.14152628 0.02156977 0.15224747 0.06487093 -0.112179585 -0.08611339 0.1753744 0.006763455 -0.067474045 -0.03991139 0.06317091 -0.082954824 -0.038271952 -0.10555161 0.07516279 0.081746496 0.049772967 -0.20082627 -0.038248435 0.1645417 -0.049872752 0.16548449 0.035125546 -0.058920402 0.070341654 0.1395191 -0.112787925 0.022218775 0.102788106 0.025710253 0.13056254 0.02854976 -0.23556046 -0.25677845 0.10452287 -0.0723465 -0.2278844 0.006802646 0.035019074 0.0700027 -0.037314538 -0.07207271 0.074376054 -0.13364331 -0.0007120509 -0.12987992 -0.024596194 -0.013641819 -0.0065870555 0.08466252 0.043337476 -0.009217431 -0.05010594 0.15523614 0.07664934 0.07516884 -0.039059557 -0.15237354 0.04060882 0.11824911 -0.066926196 -0.13565372 -0.009203302 -0.012821988
23 0.14417934 -0.03909752 0.16356994 -0.05753498 0.009509923 -0.1498065 -0.0009166054 0.089740045 -0.06931924 0.049760714 0.2817404 -0.07803439 -0.21073295 -0.002624503 0.11864732 -0.043249764 0.09960064 -0.067799345 -0.12522498 0.05541895 0.16896595 0.08271098 0.101829916 0.13986854 -0.12409484 0.12748425 -0.16753912 0.17980625 0.024560208 -0.13077159 -0.16778845 0.02232607 0.07237174 -0.070858724 -0.08145415 -0.11782403 0.23809719 -0.071905985 0.18418239 0.056589954 -0.07045679 0.06749726 -0.054472163 -0.14638074 -0.024461733 -0.042545177 0.11778097 -0.007593595 -0.0029700142 0.11776358 0.034541354 0.014116598 0.19525471 0.090400755 0.12780531 0.1311098 0.19264221 0.028058842 -0.13555706 0.16728283 0.074331194 -0.13224043 0.022371897 0.11403547 0.19958963 -0.030224547 0.20883863 0.052166622 -0.12067533 -0.06701121 0.19312732 0.05036505 -0.037641678 -0.09465052 0.071929075 -0.14217032 -0.058471162 -0.094566494 -0.0121848695 0.12625843 0.094827406 -0.23633797 -0.09053098 0.15487519 -0.055622768 0.22236727 0.06823959 -0.032403376 0.025487082 0.2214313 -0.12322492 -0.029940188 0.088557795 -0.0044708382 0.11680413 0.013593244 -0.2534971 -0.31191978 0.04500015 -0.039720666 -0.2393297 -0.010085207 0.049310297 0.10878589 0.028862081 -0.11977234 0.104442194 -0.10075233 0.000563068 -0.18866609 -0.023613283 -0.068425655 0.0053739194 0.055987768 0.045071863 -0.015682891 -0.056915887 0.21493018 0.10568935 0.059302874 -0.104143314 -0.20086077 0.03713471 0.07249608 -0.041640237 -0.11157469 -0.042117633 -0.012318464
17 0.10420975 -0.042824104 0.14092009 -0.06448633 0.077072516 0.039126758 -0.010769537 -0.0593258 0.19639459 -0.06679849 0.04854029 0.059545875 0.15008828 -0.2331941 0.20642962 0.018288272 -0.07610176 -0.19288047 -0.008135587 -0.12939294 -0.14164597 0.13117908 -0.08397416 0.050835747 -0.12485581 0.22296694 0.19743395 0.21315497 0.20715319 0.07294113 -0.10377093 0.011579474 -0.05476781 0.114379406 -0.091725454 0.1780623 0.26170585 0.14018187 0.3362971 -0.043939218 -0.10773449 -0.2245173 -0.099252954 0.028017038 0.28565672 -0.082681246 0.23647252 -0.2095313 -0.1225109 -0.097183764 -0.014887943 -0.1162463 -0.022628412 0.1994139 0.1370836 -0.01412816 0.11011204 0.07212422 -0.25031465 -0.11118347 -0.19407316 -0.09978826 0.20243312 0.12262799 0.11421801 0.17184061 0.0940943 0.0065114824 -0.19151366 -0.13822025 0.26772824 0.07126716 -0.16623622 0.21255524 0.09978557 0.0625243 0.031378012 -0.17882617 0.34713638 -0.06253962 -0.022666128 -0.12519431 -0.025722075 0.1063577 -0.20564619 0.15198947 -0.07826732 -0.069948316 0.13032828 -0.056668866 -0.036658894 0.1570865 0.35165185 0.06297636 0.098962516 0.16469952 -0.21631017 -0.1650862 0.23674256 -0.1313078 -0.11466318 0.03516334 0.009932281 0.06292499 -0.1562008 -0.07461479 0.015347217 -0.2042578 -0.03753834 0.16184978 -0.047725648 0.0850605 -0.042479035 0.20729348 0.02097595 0.006827573 -0.050848577 0.025260413 -0.019746095 0.09462722 0.18310912 -0.11357312 0.06729109 0.18114634 -0.032973267 -0.20943393 0.024841258 0.08164971
21 0.12348488 -0.057554897 0.1540182 -0.05852773 0.021991514 -0.09738762 -0.0027973277 0.057613045 -0.01095484 0.019849373 0.22153273 -0.04377155 -0.13820435 -0.0310798 0.1193931 -0.04209714 0.05593198 -0.06647014 -0.100518174 0.020406786 0.12067039 0.08667759 0.07200667 0.10711616 -0.11986314 0.14304288 -0.102452144 0.15923524 0.06109886 -0.087023236 -0.15345028 0.023169829 0.052369554 -0.02663474 -0.06728954 -0.057282154 0.22539066 -0.042269155 0.19141461 0.03804869 -0.07821282 0.032711014 -0.06677907 -0.11907052 0.030900104 -0.049133573 0.11985114 -0.047097735 -0.013526927 0.061777048 0.023137473 -0.005186633 0.15131098 0.12339623 0.11592565 0.106329925 0.15156484 0.042027812 -0.1462449 0.1052855 0.034931485 -0.13857366 0.058195736 0.11884881 0.16665238 0.016476233 0.17196433 0.056400534 -0.12593584 -0.08144581 0.18896988 0.03192876 -0.05930837 -0.034805097 0.078647815 -0.09998137 -0.045222078 -0.11273219 0.051135357 0.08130858 0.07632907 -0.21129939 -0.06600638 0.15863453 -0.074022464 0.18258256 0.052444573 -0.04156118 0.04992693 0.16478284 -0.09284345 0.013634811 0.122566506 0.006846932 0.13139445 0.037419267 -0.24270241 -0.27462396 0.074575625 -0.06271498 -0.21267863 -0.00085113413 0.047172662 0.08865432 -0.009102151 -0.09158536 0.07933819 -0.11145367 0.0025830125 -0.1238635 -0.019285068 -0.037456922 -0.00567514 0.08443152 0.0409331 -0.007201295 -0.03852127 0.16521555 0.08611444 0.06172175 -0.05425875 -0.17045315 0.05110985 0.09031489 -0.048517864 -0.13103692 -0.028722728 -0.0018879751
18 0.10180925 -0.104657546 0.20633267 -0.10742142 0.055310424 -0.063123494 -0.003753094 0.0037793978 0.08663549 -0.038947098 0.2143508 0.009634117 0.009327391 -0.12258403 0.1362022 -0.06563164 -0.052229498 -0.0784947 -0.04626193 -0.05279975 0.042843726 0.043589532 -0.037130114 0.07343457 -0.1565797 0.18066114 0.010372801 0.17916882 0.16355337 0.01647999 -0.16621895 0.04430409 -0.0039010446 0.050064635 -0.018845066 0.059335962 0.22220884 0.09393262 0.29207623 -0.022317503 -0.07084424 -0.03909317 -0.13287863 -0.047183193 0.18027465 -0.051363714 0.16445537 -0.16891688 -0.03601201 -0.038625777 -0.0062462157 -0.094264016 0.050599493 0.22229989 0.14549527 0.0387497 0.05527032 0.04437422 -0.21192107 -0.007252796 -0.018048305 -0.14421499 0.1318425 0.13041349 0.09025434 0.089953534 0.0639909 0.06911168 -0.11095908 -0.12741794 0.17009959 -0.031474642 -0.123025574 0.042813268 0.073671035 -0.005586778 -0.015928635 -0.15046056 0.19261886 0.03109272 -0.0024299659 -0.16341195 0.03284187 0.16183487 -0.076791495 0.115767814 -0.01827851 -0.09437633 0.11343891 0.022658022 -0.08987882 0.10177446 0.15180787 0.07863824 0.13048661 0.050167836 -0.23463607 -0.19550644 0.16328144 -0.11559972 -0.22234201 0.026476651 0.013325477 0.028042747 -0.117071144 -0.014462649 0.03450096 -0.1803356 0.01807525 -0.03333546 -0.017655324 0.040902194 0.004865638 0.105635986 0.05323675 -0.014961048 -0.03196897 0.09760639 0.029672008 0.077103294 0.06615369 -0.09996786 0.05951797 0.16721652 -0.10708003 -0.15380189 0.02850265 0.0026331034
22 0.0964638 -0.088058956 0.18037207 -0.10348872 0.04030437 -0.0553611 -0.0042075873 -0.0067396457 0.1050606 -0.042976562 0.18315625 0.031674832 0.022950811 -0.14298917 0.14243238 -0.040432613 -0.045995302 -0.0838543 -0.036053702 -0.05848888 0.0093244845 0.060142085 -0.034692176 0.06396445 -0.14836937 0.17940122 0.037616078 0.1815711 0.16578552 0.022646884 -0.15800615 0.022848388 -0.013156972 0.058778368 -0.043051686 0.089066334 0.24049075 0.09424154 0.3043784 -0.019543482 -0.07337799 -0.061887115 -0.107845694 -0.043441653 0.19611306 -0.06253708 0.17851898 -0.17322023 -0.050181847 -0.03903704 0.0006566449 -0.10764663 0.044385504 0.20587783 0.14858904 0.04096295 0.073552385 0.03911124 -0.21349713 -0.017957574 -0.044649653 -0.12151296 0.11709015 0.11218613 0.094619855 0.09456667 0.07374552 0.04936535 -0.13148724 -0.12930669 0.19724175 -0.021694532 -0.12751101 0.06264951 0.06948433 -0.0036670861 -9.4178125e-05 -0.15320727 0.21824111 0.03340844 0.003255962 -0.15616558 0.019249761 0.15857193 -0.101758614 0.12340694 -0.018453134 -0.094855025 0.13055389 0.017610831 -0.08588951 0.10022733 0.18275304 0.06998156 0.13300884 0.07830341 -0.2329757 -0.19316699 0.16663484 -0.11422028 -0.20643368 0.0300107 0.026619704 0.03795006 -0.113130555 -0.030173093 0.040750198 -0.18503635 -0.0065543745 -0.012465511 -0.027867282 0.051503737 -0.0046821577 0.13401358 0.051171537 -0.018556686 -0.04020982 0.08917011 0.02659192 0.07678114 0.07083408 -0.10910126 0.042120893 0.16491078 -0.09260789 -0.17017885 0.021979105 0.009601526
15 0.13020876 -0.050276656 0.16267517 -0.06198658 0.02141002 -0.12418569 -0.0005016082 0.07296108 -0.038405985 0.03579059 0.25777468 -0.06399425 -0.16397819 -0.028409107 0.12397752 -0.053967834 0.066524 -0.06692676 -0.10911074 0.034197 0.14140373 0.07633533 0.07087221 0.120626636 -0.1269525 0.1405208 -0.13114607 0.17634626 0.047400985 -0.092970796 -0.16711438 0.02644525 0.058141347 -0.049886934 -0.06887327 -0.092039585 0.22400555 -0.04416501 0.19118516 0.036967047 -0.0618072 0.047772944 -0.07477135 -0.11607884 0.012406485 -0.043942776 0.108220875 -0.032381266 -0.008905466 0.083315074 0.026176462 0.0030383407 0.16034351 0.112608254 0.118518926 0.11256756 0.15912955 0.02955965 -0.13572498 0.13935238 0.04402196 -0.13123882 0.046614435 0.1147984 0.16195264 -0.005569254 0.17671424 0.047680948 -0.113572896 -0.065817565 0.17456892 0.035835683 -0.053075347 -0.057912063 0.065806955 -0.11545584 -0.048364423 -0.09880768 0.029193893 0.10193689 0.06630873 -0.21106537 -0.06291665 0.15239765 -0.064147204 0.1826557 0.060114328 -0.028697621 0.045157153 0.1743479 -0.11235287 -0.010066057 0.08254493 0.007917933 0.111741304 0.011334878 -0.23392718 -0.26737323 0.047593515 -0.0413496 -0.21891011 7.582315e-05 0.04228622 0.09725763 0.008548071 -0.090477236 0.09320622 -0.122110225 -0.00035195643 -0.14452045 -0.01478505 -0.045743875 -0.0043997653 0.06362835 0.03258391 -0.003488161 -0.052448913 0.17743397 0.08911159 0.0677249 -0.07501422 -0.17929809 0.050397616 0.09247895 -0.046507724 -0.12147096 -0.03355359 -0.0041509196
16 0.11500791 -0.05644911 0.14573793 -0.06605869 0.010182633 -0.10070099 -0.0032630556 0.052392036 -0.01157949 0.01875987 0.23468933 -0.043289408 -0.13253462 -0.031651683 0.1130836 -0.04502694 0.053730916 -0.0588115 -0.09156504 0.01449219 0.12828092 0.068668425 0.05168087 0.096377894 -0.124594055 0.13284457 -0.11683349 0.1531863 0.062293 -0.080456816 -0.14524794 0.02192704 0.046471123 -0.036460206 -0.058928315 -0.054687936 0.22057727 -0.031626295 0.20231193 0.03498678 -0.07186457 0.041283745 -0.07755727 -0.12082915 0.03564888 -0.045345988 0.12305098 -0.057550736 -0.016232673 0.061257202 0.026606908 -0.021045933 0.14477012 0.12718186 0.13382283 0.10354239 0.14374985 0.035057664 -0.15589911 0.10647858 0.044690248 -0.13956682 0.042634677 0.11715057 0.16907158 0.011647924 0.16743225 0.056002133 -0.1218536 -0.090978 0.17532843 0.019805752 -0.068830945 -0.040842146 0.07954743 -0.10064194 -0.04156976 -0.10564909 0.058032174 0.085883826 0.06716743 -0.21206851 -0.059224572 0.15911411 -0.059289 0.18531765 0.042590007 -0.051324535 0.058793247 0.15779585 -0.11295706 0.019560661 0.10421891 0.020274872 0.1370098 0.026423302 -0.24566138 -0.27777582 0.070190966 -0.059616122 -0.23306109 -0.0032494012 0.05250696 0.07873385 -0.013454458 -0.090868466 0.0785291 -0.13199803 0.008313759 -0.13780312 -0.017163755 -0.0354808 0.0043032616 0.08005182 0.049686473 0.0028264946 -0.05552913 0.1697135 0.07982741 0.06450838 -0.049938414 -0.16434534 0.046261072 0.10227281 -0.06204127 -0.13234478 -0.017482894 -0.014690315
12 0.11481489 -0.06657841 0.16939847 -0.07603691 0.0494892 -0.05987888 0.0069116866 0.008695558 0.08351636 -0.024677759 0.18337192 0.00017631351 -0.009051295 -0.12848863 0.16156502 -0.036438577 -0.01291718 -0.118132904 -0.053195275 -0.057521444 0.01326756 0.08367467 -0.017347157 0.08462559 -0.1280373 0.18731762 0.026517324 0.19155484 0.14125407 0.0021992782 -0.15163377 0.030962506 0.007952658 0.03428817 -0.06447756 0.049150657 0.24064279 0.0601373 0.27930504 -0.0073005115 -0.07776919 -0.060512606 -0.10297019 -0.049375772 0.15161708 -0.060874697 0.15225828 -0.120446555 -0.04914307 -0.010284625 0.0020981866 -0.076305464 0.06664643 0.16820103 0.13086477 0.041325975 0.10510626 0.048432108 -0.1958477 0.009801403 -0.05587132 -0.123090155 0.11278638 0.11109054 0.123293795 0.07389814 0.10895973 0.036746062 -0.14502054 -0.10841922 0.2043175 0.021381741 -0.1123822 0.053952914 0.07400182 -0.024778066 -0.008768097 -0.13721444 0.17897509 0.019720789 0.013422802 -0.17343488 -0.02756482 0.14368421 -0.11059643 0.1395194 -0.0022164327 -0.06608044 0.099314764 0.057572305 -0.08060754 0.08455899 0.1896173 0.04834876 0.11323764 0.06530638 -0.23235424 -0.21914022 0.14447649 -0.09598374 -0.18685856 0.011866025 0.026785728 0.067371994 -0.07581054 -0.074877195 0.048190318 -0.1656936 -0.0006008591 -0.0069640777 -0.02503401 0.021211967 -0.014236364 0.11778306 0.03021682 0.0019480658 -0.05781865 0.1119894 0.03117799 0.07460976 0.052484162 -0.13759968 0.060143963 0.14923543 -0.06868983 -0.15861876 0.010296211 0.021633783
